solver_type L2R_L2LOSS_SVC_DUAL
nr_class 2
label 1 -1
nr_feature 123
bias -1
w
-0.4005194299065211 
-0.176737981114625 
0.03682412678710858 
0.1432970713027888 
0.1452010271900454 
0.1061091606882696 
-0.03567292086474623 
0.2096481068193105 
0.2512250858311723 
0.009764041107977205 
-0.01016269517276709 
-0.5901783934253926 
-0.2516542639846532 
-0.1092404369923625 
-0.04023648832542864 
-0.04123169682400304 
-0.03378284124933081 
-0.02744372235008396 
-0.1222039711571995 
-0.02125876984366745 
0.1041736677726364 
-0.09303179499220529 
0.2060864480478676 
0.002513381844218547 
0.003791140794915986 
-0.01901775995009008 
-0.07965797946713504 
0.2167007452578548 
-0.002976259390942272 
-0.05881200166321064 
0.04996952356096756 
0.2553385365084594 
0.001041920225658589 
-0.6945920132893378 
-0.4801938975526592 
-0.09303179499220529 
-0.02125876984366745 
0.00630452263913522 
0.3362447540081658 
0.3388583691573811 
-0.2579078314081208 
-0.3099951346553924 
-0.2586018481665815 
-0.1116501350044062 
-0.216499166591781 
0.5638605609276699 
0.2683231203360792 
0.03404410882328569 
-0.1845773454800303 
0.1523197435855977 
0.3174616282174361 
0.2251024155313127 
-0.1686360430453484 
-0.1020386688081345 
0.07533286916199508 
-0.2566409638231883 
-0.01901172627547408 
-0.4708660673878388 
0.2687574487792568 
-0.1988381346311157 
0.3637439285572457 
-0.1973230552320149 
-0.08948899574670476 
-0.05468690854374363 
-0.1702883872431566 
-0.1038917675328377 
0.001231398685947278 
0.06046160607807768 
-0.1561746612893284 
-0.1186344457309776 
-0.03881908348492821 
-0.2509771622706434 
-0.0009580234705560131 
-0.4124991311990019 
0.1605639454577877 
-0.3186862109150066 
0.06675102517378856 
-0.3651227062985088 
-0.06920903304282347 
-0.04045949824606906 
0.08669888446071132 
0.1361571673854808 
0.1512301326159491 
0.420415296905654 
0.2217431138386055 
-0.03227693212099346 
0.2323170244496797 
0.2018695838714551 
-0.4793514882542925 
-0.08386291611987122 
0.1841057313256769 
-0.210275476083885 
-0.2213482888416998 
-0.1650611119063332 
0.1498818328679569 
0.09278118891041856 
-0.09892918430657115 
0.1790218362296825 
0.335059570918005 
0.07399632431852121 
0.06911458665068812 
-0.3079756965423501 
-0.03679202212123084 
0.1216752977685667 
0.283358631201006 
0.2607003523199967 
-0.2152579288416138 
-0.08475911193559371 
0.03136764839428507 
0.08402440931652176 
0.01397670110064582 
-0.6403796456132083 
-0.02454998033172898 
0.1149146817462728 
-0.1736571297582813 
0.008018693028725377 
-0.1183299129699626 
0.3136736605995701 
-0.1206884874655936 
-0.05270457246124713 
-0.1797215649746081 
0.03584420295798753 
0 
